#pragma once
#include <stdarg.h>
namespace Eloquent {
    namespace ML {
        namespace Port {
            class RandomForest {
                public:
                    /**
                    * Predict class for features vector
                    */
                    int predict(float *x) {
                        uint8_t votes[2] = { 0 };
                        // tree #1
                        if (x[138] <= 0.5326915234327316) {
                            if (x[77] <= 0.07884984277188778) {
                                if (x[127] <= -0.004635348916053772) {
                                    if (x[70] <= -0.3035163879394531) {
                                        if (x[49] <= -0.2795760799199343) {
                                            votes[0] += 1;
                                        }

                                        else {
                                            votes[0] += 1;
                                        }
                                    }

                                    else {
                                        if (x[98] <= -0.27173827216029167) {
                                            votes[0] += 1;
                                        }

                                        else {
                                            votes[0] += 1;
                                        }
                                    }
                                }

                                else {
                                    votes[1] += 1;
                                }
                            }

                            else {
                                if (x[79] <= 1.2461500763893127) {
                                    if (x[80] <= 1.0436640977859497) {
                                        if (x[41] <= 1.128784418106079) {
                                            if (x[75] <= 0.4056854248046875) {
                                                if (x[74] <= 0.32270437479019165) {
                                                    votes[1] += 1;
                                                }

                                                else {
                                                    votes[1] += 1;
                                                }
                                            }

                                            else {
                                                if (x[54] <= 1.2111315727233887) {
                                                    if (x[82] <= 0.6257012784481049) {
                                                        votes[0] += 1;
                                                    }

                                                    else {
                                                        votes[0] += 1;
                                                    }
                                                }

                                                else {
                                                    votes[1] += 1;
                                                }
                                            }
                                        }

                                        else {
                                            votes[0] += 1;
                                        }
                                    }

                                    else {
                                        votes[1] += 1;
                                    }
                                }

                                else {
                                    if (x[115] <= 1.4822696447372437) {
                                        if (x[61] <= 1.7583714723587036) {
                                            votes[0] += 1;
                                        }

                                        else {
                                            votes[0] += 1;
                                        }
                                    }

                                    else {
                                        votes[0] += 1;
                                    }
                                }
                            }
                        }

                        else {
                            if (x[124] <= 1.414183795452118) {
                                if (x[156] <= 0.30502624809741974) {
                                    if (x[90] <= 0.7243957221508026) {
                                        votes[1] += 1;
                                    }

                                    else {
                                        votes[1] += 1;
                                    }
                                }

                                else {
                                    votes[1] += 1;
                                }
                            }

                            else {
                                if (x[112] <= 1.337015450000763) {
                                    votes[0] += 1;
                                }

                                else {
                                    votes[1] += 1;
                                }
                            }
                        }

                        // tree #2
                        if (x[115] <= 0.028402773197740316) {
                            if (x[163] <= 0.9389434158802032) {
                                if (x[59] <= 0.005476128309965134) {
                                    if (x[132] <= -0.050551434978842735) {
                                        votes[0] += 1;
                                    }

                                    else {
                                        votes[0] += 1;
                                    }
                                }

                                else {
                                    if (x[63] <= 1.2239637970924377) {
                                        if (x[36] <= 1.2318808436393738) {
                                            if (x[17] <= 0.6306388825178146) {
                                                votes[1] += 1;
                                            }

                                            else {
                                                votes[1] += 1;
                                            }
                                        }

                                        else {
                                            votes[0] += 1;
                                        }
                                    }

                                    else {
                                        if (x[48] <= 2.303464412689209) {
                                            votes[0] += 1;
                                        }

                                        else {
                                            votes[0] += 1;
                                        }
                                    }
                                }
                            }

                            else {
                                if (x[162] <= 1.7864814400672913) {
                                    votes[1] += 1;
                                }

                                else {
                                    votes[0] += 1;
                                }
                            }
                        }

                        else {
                            if (x[118] <= 1.0900550484657288) {
                                if (x[106] <= 0.26498569548130035) {
                                    votes[1] += 1;
                                }

                                else {
                                    if (x[68] <= 0.682371973991394) {
                                        votes[1] += 1;
                                    }

                                    else {
                                        votes[1] += 1;
                                    }
                                }
                            }

                            else {
                                if (x[143] <= 2.2366278171539307) {
                                    if (x[113] <= 1.5821815729141235) {
                                        if (x[88] <= 1.297231674194336) {
                                            votes[1] += 1;
                                        }

                                        else {
                                            votes[0] += 1;
                                        }
                                    }

                                    else {
                                        if (x[65] <= 0.40554380416870117) {
                                            votes[1] += 1;
                                        }

                                        else {
                                            votes[0] += 1;
                                        }
                                    }
                                }

                                else {
                                    votes[0] += 1;
                                }
                            }
                        }

                        // tree #3
                        if (x[109] <= 0.5905938446521759) {
                            if (x[131] <= 0.25459571927785873) {
                                if (x[67] <= 0.04190573433879763) {
                                    if (x[113] <= -0.4786890000104904) {
                                        votes[0] += 1;
                                    }

                                    else {
                                        if (x[134] <= -0.27809999138116837) {
                                            votes[0] += 1;
                                        }

                                        else {
                                            votes[0] += 1;
                                        }
                                    }
                                }

                                else {
                                    if (x[122] <= -0.47746389359235764) {
                                        if (x[63] <= 0.6925914287567139) {
                                            votes[1] += 1;
                                        }

                                        else {
                                            if (x[56] <= 1.9468164443969727) {
                                                if (x[62] <= 1.3457902669906616) {
                                                    votes[0] += 1;
                                                }

                                                else {
                                                    votes[0] += 1;
                                                }
                                            }

                                            else {
                                                votes[1] += 1;
                                            }
                                        }
                                    }

                                    else {
                                        votes[0] += 1;
                                    }
                                }
                            }

                            else {
                                if (x[158] <= 0.12824426591396332) {
                                    votes[0] += 1;
                                }

                                else {
                                    if (x[168] <= 2.1166064739227295) {
                                        votes[1] += 1;
                                    }

                                    else {
                                        votes[1] += 1;
                                    }
                                }
                            }
                        }

                        else {
                            if (x[61] <= 1.4877111315727234) {
                                if (x[119] <= 1.6034017205238342) {
                                    if (x[86] <= 0.7268510460853577) {
                                        votes[1] += 1;
                                    }

                                    else {
                                        if (x[111] <= 1.1996304988861084) {
                                            votes[1] += 1;
                                        }

                                        else {
                                            votes[1] += 1;
                                        }
                                    }
                                }

                                else {
                                    votes[0] += 1;
                                }
                            }

                            else {
                                votes[0] += 1;
                            }
                        }

                        // tree #4
                        if (x[36] <= 0.9010688364505768) {
                            if (x[66] <= 1.7070037126541138) {
                                if (x[148] <= 2.0833396911621094) {
                                    if (x[124] <= 0.05884523689746857) {
                                        if (x[61] <= 0.13440954312682152) {
                                            if (x[131] <= -0.07391488365828991) {
                                                if (x[64] <= -0.18868468701839447) {
                                                    if (x[112] <= 0.049759477376937866) {
                                                        votes[0] += 1;
                                                    }

                                                    else {
                                                        votes[0] += 1;
                                                    }
                                                }

                                                else {
                                                    votes[0] += 1;
                                                }
                                            }

                                            else {
                                                votes[1] += 1;
                                            }
                                        }

                                        else {
                                            if (x[83] <= 1.3159335255622864) {
                                                votes[1] += 1;
                                            }

                                            else {
                                                votes[1] += 1;
                                            }
                                        }
                                    }

                                    else {
                                        if (x[134] <= -0.15277595818042755) {
                                            votes[1] += 1;
                                        }

                                        else {
                                            if (x[79] <= -0.3659896180033684) {
                                                if (x[156] <= 1.5082157850265503) {
                                                    if (x[141] <= 0.9113430380821228) {
                                                        votes[1] += 1;
                                                    }

                                                    else {
                                                        votes[1] += 1;
                                                    }
                                                }

                                                else {
                                                    votes[1] += 1;
                                                }
                                            }

                                            else {
                                                if (x[127] <= 1.4554989337921143) {
                                                    votes[0] += 1;
                                                }

                                                else {
                                                    votes[1] += 1;
                                                }
                                            }
                                        }
                                    }
                                }

                                else {
                                    if (x[137] <= 1.906768560409546) {
                                        votes[0] += 1;
                                    }

                                    else {
                                        votes[0] += 1;
                                    }
                                }
                            }

                            else {
                                votes[0] += 1;
                            }
                        }

                        else {
                            if (x[23] <= 1.9133833050727844) {
                                if (x[58] <= 1.1474058628082275) {
                                    votes[0] += 1;
                                }

                                else {
                                    votes[0] += 1;
                                }
                            }

                            else {
                                votes[0] += 1;
                            }
                        }

                        // tree #5
                        if (x[107] <= 0.00551949068903923) {
                            if (x[9] <= 0.5446656346321106) {
                                if (x[78] <= 0.021006513386964798) {
                                    if (x[170] <= 1.2875086069107056) {
                                        if (x[60] <= -0.03184146760031581) {
                                            if (x[65] <= -0.3541725128889084) {
                                                votes[0] += 1;
                                            }

                                            else {
                                                votes[0] += 1;
                                            }
                                        }

                                        else {
                                            votes[0] += 1;
                                        }
                                    }

                                    else {
                                        if (x[169] <= 1.9206455945968628) {
                                            votes[1] += 1;
                                        }

                                        else {
                                            votes[1] += 1;
                                        }
                                    }
                                }

                                else {
                                    if (x[22] <= 0.33397045731544495) {
                                        if (x[62] <= 1.6922276616096497) {
                                            votes[0] += 1;
                                        }

                                        else {
                                            votes[1] += 1;
                                        }
                                    }

                                    else {
                                        votes[1] += 1;
                                    }
                                }
                            }

                            else {
                                votes[0] += 1;
                            }
                        }

                        else {
                            if (x[84] <= 1.318146526813507) {
                                if (x[83] <= -0.492513133212924) {
                                    if (x[163] <= 0.9389434158802032) {
                                        if (x[98] <= -0.2717382609844208) {
                                            votes[0] += 1;
                                        }

                                        else {
                                            votes[1] += 1;
                                        }
                                    }

                                    else {
                                        votes[1] += 1;
                                    }
                                }

                                else {
                                    if (x[121] <= 0.9460941851139069) {
                                        votes[1] += 1;
                                    }

                                    else {
                                        if (x[66] <= -0.009079813957214355) {
                                            votes[1] += 1;
                                        }

                                        else {
                                            votes[1] += 1;
                                        }
                                    }
                                }
                            }

                            else {
                                if (x[62] <= 0.3834640681743622) {
                                    votes[1] += 1;
                                }

                                else {
                                    votes[0] += 1;
                                }
                            }
                        }

                        // tree #6
                        if (x[114] <= 0.12053564563393593) {
                            if (x[72] <= -0.01946132443845272) {
                                if (x[161] <= 0.8547773957252502) {
                                    if (x[156] <= -0.096036896109581) {
                                        if (x[123] <= -0.2918017953634262) {
                                            if (x[61] <= 0.13440954312682152) {
                                                votes[0] += 1;
                                            }

                                            else {
                                                votes[0] += 1;
                                            }
                                        }

                                        else {
                                            votes[0] += 1;
                                        }
                                    }

                                    else {
                                        votes[0] += 1;
                                    }
                                }

                                else {
                                    if (x[176] <= 2.6081427335739136) {
                                        votes[1] += 1;
                                    }

                                    else {
                                        votes[1] += 1;
                                    }
                                }
                            }

                            else {
                                if (x[73] <= 1.2370028495788574) {
                                    if (x[35] <= 1.383284330368042) {
                                        if (x[64] <= 0.33963243663311005) {
                                            votes[0] += 1;
                                        }

                                        else {
                                            if (x[98] <= 0.5627782940864563) {
                                                votes[1] += 1;
                                            }

                                            else {
                                                votes[1] += 1;
                                            }
                                        }
                                    }

                                    else {
                                        votes[0] += 1;
                                    }
                                }

                                else {
                                    if (x[60] <= 1.8613831400871277) {
                                        votes[0] += 1;
                                    }

                                    else {
                                        votes[1] += 1;
                                    }
                                }
                            }
                        }

                        else {
                            if (x[123] <= 0.6656728684902191) {
                                if (x[153] <= -0.19123771041631699) {
                                    if (x[98] <= 0.40382276475429535) {
                                        votes[1] += 1;
                                    }

                                    else {
                                        if (x[69] <= 1.2933233380317688) {
                                            votes[1] += 1;
                                        }

                                        else {
                                            votes[1] += 1;
                                        }
                                    }
                                }

                                else {
                                    votes[1] += 1;
                                }
                            }

                            else {
                                if (x[62] <= 0.03702664375305176) {
                                    if (x[145] <= 2.368571639060974) {
                                        if (x[135] <= 0.9523154199123383) {
                                            votes[1] += 1;
                                        }

                                        else {
                                            votes[1] += 1;
                                        }
                                    }

                                    else {
                                        votes[0] += 1;
                                    }
                                }

                                else {
                                    votes[0] += 1;
                                }
                            }
                        }

                        // tree #7
                        if (x[126] <= 0.027433034032583237) {
                            if (x[75] <= -0.08307062461972237) {
                                if (x[75] <= -0.45903681218624115) {
                                    if (x[50] <= -0.2945841960608959) {
                                        votes[0] += 1;
                                    }

                                    else {
                                        votes[0] += 1;
                                    }
                                }

                                else {
                                    votes[0] += 1;
                                }
                            }

                            else {
                                if (x[97] <= 0.5638095438480377) {
                                    if (x[74] <= 1.5928858518600464) {
                                        if (x[39] <= 1.3192970752716064) {
                                            votes[1] += 1;
                                        }

                                        else {
                                            votes[1] += 1;
                                        }
                                    }

                                    else {
                                        votes[1] += 1;
                                    }
                                }

                                else {
                                    if (x[74] <= 1.2940195798873901) {
                                        if (x[92] <= 0.9967080652713776) {
                                            votes[0] += 1;
                                        }

                                        else {
                                            votes[1] += 1;
                                        }
                                    }

                                    else {
                                        if (x[84] <= 1.4725737571716309) {
                                            votes[0] += 1;
                                        }

                                        else {
                                            votes[0] += 1;
                                        }
                                    }
                                }
                            }
                        }

                        else {
                            if (x[158] <= 0.12824426591396332) {
                                if (x[109] <= 0.8567413091659546) {
                                    votes[0] += 1;
                                }

                                else {
                                    if (x[89] <= 1.060669481754303) {
                                        votes[0] += 1;
                                    }

                                    else {
                                        if (x[80] <= 1.3094621300697327) {
                                            votes[1] += 1;
                                        }

                                        else {
                                            votes[1] += 1;
                                        }
                                    }
                                }
                            }

                            else {
                                if (x[150] <= 2.0606415271759033) {
                                    if (x[175] <= 2.610146999359131) {
                                        votes[1] += 1;
                                    }

                                    else {
                                        votes[1] += 1;
                                    }
                                }

                                else {
                                    votes[0] += 1;
                                }
                            }
                        }

                        // tree #8
                        if (x[88] <= -0.0863844994455576) {
                            if (x[124] <= 0.018982332199811935) {
                                if (x[45] <= 0.07247481122612953) {
                                    if (x[111] <= -0.4382079392671585) {
                                        votes[0] += 1;
                                    }

                                    else {
                                        votes[0] += 1;
                                    }
                                }

                                else {
                                    if (x[10] <= 0.7106087133288383) {
                                        if (x[15] <= 0.6859790533781052) {
                                            if (x[61] <= 0.018412265926599503) {
                                                votes[0] += 1;
                                            }

                                            else {
                                                votes[1] += 1;
                                            }
                                        }

                                        else {
                                            votes[1] += 1;
                                        }
                                    }

                                    else {
                                        votes[0] += 1;
                                    }
                                }
                            }

                            else {
                                if (x[155] <= 1.4463666677474976) {
                                    votes[0] += 1;
                                }

                                else {
                                    if (x[124] <= 1.3743208646774292) {
                                        votes[1] += 1;
                                    }

                                    else {
                                        votes[1] += 1;
                                    }
                                }
                            }
                        }

                        else {
                            if (x[115] <= 1.1467618942260742) {
                                if (x[60] <= -0.1124042272567749) {
                                    if (x[104] <= 0.30718113481998444) {
                                        votes[0] += 1;
                                    }

                                    else {
                                        if (x[126] <= 0.7982625961303711) {
                                            votes[1] += 1;
                                        }

                                        else {
                                            votes[1] += 1;
                                        }
                                    }
                                }

                                else {
                                    if (x[94] <= 0.9882233440876007) {
                                        votes[1] += 1;
                                    }

                                    else {
                                        votes[1] += 1;
                                    }
                                }
                            }

                            else {
                                if (x[123] <= 1.6231475472450256) {
                                    if (x[71] <= 1.383354663848877) {
                                        votes[1] += 1;
                                    }

                                    else {
                                        votes[0] += 1;
                                    }
                                }

                                else {
                                    votes[1] += 1;
                                }
                            }
                        }

                        // tree #9
                        if (x[166] <= 1.0463445484638214) {
                            if (x[91] <= -0.10274537140503526) {
                                if (x[61] <= 0.13440954312682152) {
                                    if (x[111] <= -0.47629721462726593) {
                                        if (x[145] <= -0.05579899251461029) {
                                            votes[0] += 1;
                                        }

                                        else {
                                            votes[0] += 1;
                                        }
                                    }

                                    else {
                                        if (x[160] <= -0.12161727249622345) {
                                            votes[0] += 1;
                                        }

                                        else {
                                            votes[0] += 1;
                                        }
                                    }
                                }

                                else {
                                    if (x[47] <= 1.578968346118927) {
                                        votes[1] += 1;
                                    }

                                    else {
                                        votes[0] += 1;
                                    }
                                }
                            }

                            else {
                                if (x[110] <= 1.3698051571846008) {
                                    if (x[36] <= 1.137363150715828) {
                                        if (x[89] <= 0.6775587499141693) {
                                            if (x[78] <= 0.3948512673377991) {
                                                if (x[97] <= 0.12646903097629547) {
                                                    votes[1] += 1;
                                                }

                                                else {
                                                    votes[1] += 1;
                                                }
                                            }

                                            else {
                                                votes[0] += 1;
                                            }
                                        }

                                        else {
                                            if (x[84] <= 1.318146526813507) {
                                                votes[1] += 1;
                                            }

                                            else {
                                                votes[0] += 1;
                                            }
                                        }
                                    }

                                    else {
                                        votes[0] += 1;
                                    }
                                }

                                else {
                                    if (x[72] <= 1.4941972494125366) {
                                        votes[1] += 1;
                                    }

                                    else {
                                        votes[0] += 1;
                                    }
                                }
                            }
                        }

                        else {
                            if (x[177] <= 2.788928508758545) {
                                votes[1] += 1;
                            }

                            else {
                                votes[1] += 1;
                            }
                        }

                        // tree #10
                        if (x[160] <= 0.9184580445289612) {
                            if (x[87] <= -0.14999647438526154) {
                                if (x[62] <= 0.11401273682713509) {
                                    if (x[121] <= 1.1780160665512085) {
                                        if (x[111] <= -0.4382079392671585) {
                                            votes[0] += 1;
                                        }

                                        else {
                                            votes[0] += 1;
                                        }
                                    }

                                    else {
                                        votes[0] += 1;
                                    }
                                }

                                else {
                                    votes[1] += 1;
                                }
                            }

                            else {
                                if (x[85] <= 1.2957281470298767) {
                                    if (x[91] <= 1.1824990510940552) {
                                        if (x[59] <= -0.32309163361787796) {
                                            if (x[122] <= 0.3580979257822037) {
                                                votes[0] += 1;
                                            }

                                            else {
                                                if (x[131] <= 0.6652339696884155) {
                                                    votes[0] += 1;
                                                }

                                                else {
                                                    votes[1] += 1;
                                                }
                                            }
                                        }

                                        else {
                                            if (x[48] <= 1.0899611115455627) {
                                                if (x[105] <= -0.48357389587908983) {
                                                    votes[1] += 1;
                                                }

                                                else {
                                                    votes[1] += 1;
                                                }
                                            }

                                            else {
                                                votes[0] += 1;
                                            }
                                        }
                                    }

                                    else {
                                        votes[1] += 1;
                                    }
                                }

                                else {
                                    if (x[109] <= 1.389036238193512) {
                                        if (x[93] <= 1.3087363839149475) {
                                            votes[1] += 1;
                                        }

                                        else {
                                            if (x[118] <= 1.2760410904884338) {
                                                votes[0] += 1;
                                            }

                                            else {
                                                votes[0] += 1;
                                            }
                                        }
                                    }

                                    else {
                                        votes[1] += 1;
                                    }
                                }
                            }
                        }

                        else {
                            if (x[139] <= 1.7641270160675049) {
                                if (x[163] <= 1.6964243650436401) {
                                    votes[1] += 1;
                                }

                                else {
                                    if (x[156] <= 2.195752739906311) {
                                        votes[1] += 1;
                                    }

                                    else {
                                        votes[1] += 1;
                                    }
                                }
                            }

                            else {
                                votes[0] += 1;
                            }
                        }

                        // return argmax of votes
                        uint8_t classIdx = 0;
                        float maxVotes = votes[0];

                        for (uint8_t i = 1; i < 2; i++) {
                            if (votes[i] > maxVotes) {
                                classIdx = i;
                                maxVotes = votes[i];
                            }
                        }

                        return classIdx;
                    }

                protected:
                };
            }
        }
    }
